svm_type c_svc
kernel_type rbf
gamma 0.01
nr_class 2
total_sv 929
rho -0.756899
label 1 -1
nr_sv 624 305
SV
0.004137475730244868 0:65 1:48 
0.0190832487830932 0:117 1:72 
0.02152965243925197 0:116 1:100 
0.0387633703794364 0:148 1:59 
0.006638270155560354 0:106 1:64 
0.05426090405957742 0:89 1:54 
0.1155699586970843 0:153 1:90 
0.00322382040304083 0:62 1:37 
0.003957560711116828 0:108 1:89 
0.002500931186658967 0:133 1:81 
0.001653525894936904 0:83 1:75 
0.00386165560494007 0:140 1:42 
100 0:14 1:49 
100 0:28 1:77 
100 0:9 1:88 
100 0:17 1:95 
100 0:32 1:64 
100 0:11 1:79 
0.004748286240114656 0:69 1:31 
100 0:18 1:69 
100 0:16 1:53 
0.01319439520363561 0:123 1:39 
62.58910016564426 0:33 1:112 
0.002576224092582884 0:76 1:46 
100 0:22 1:86 
100 0:7 1:56 
0.0009438820595963904 0:88 1:43 
0.01542085582740957 0:148 1:65 
0.001376308277416058 0:101 1:85 
0.01390503100942329 0:106 1:41 
0.0109699546127878 0:156 1:71 
0.0008977032351596094 0:78 1:47 
0.03510325781839421 0:144 1:52 
0.001031245787464386 0:132 1:85 
100 0:16 1:72 
0.0009429563712545774 0:63 1:29 
0.004426150946932062 0:105 1:89 
0.004895251212917881 0:89 1:72 
0.001324888420778473 0:121 1:60 
100 0:14 1:55 
0.8968547581920973 0:41 1:69 
0.05383799741002521 0:94 1:78 
0.02390742234163456 0:57 1:25 
0.03157836903846255 0:71 1:38 
100 0:1 1:94 
0.0007582559495791446 0:86 1:40 
0.0509757182407957 0:104 1:54 
100 0:13 1:65 
100 0:25 1:71 
0.001344112181065979 0:108 1:69 
0.05239773575116322 0:140 1:49 
0.009046923020499503 0:122 1:36 
0.03220411981117483 0:166 1:55 
100 0:11 1:78 
100 0:17 1:64 
100 0:18 1:66 
100 0:21 1:82 
0.008630771565077555 0:93 1:47 
0.004258012166686769 0:110 1:88 
43.91217155164556 0:51 1:65 
0.06219143801245619 0:83 1:66 
0.01203043332363134 0:60 1:30 
0.001451788005161327 0:102 1:35 
0.003807667627377831 0:123 1:56 
100 0:11 1:43 
38.39732904454694 0:29 1:79 
100 0:17 1:65 
0.004794529158760552 0:113 1:91 
100 0:15 1:89 
0.0937154937834207 0:134 1:103 
0.01735602117830114 0:89 1:71 
1.931162916752963 0:60 1:138 
0.03573156872519798 0:106 1:75 
0.001844026965909899 0:100 1:74 
0.006773618812108126 0:81 1:51 
0.01456936212190067 0:137 1:58 
0.01330758184407245 0:81 1:36 
0.007745912171051017 0:83 1:55 
0.002597516471906428 0:85 1:58 
0.003166786565315771 0:106 1:61 
0.06220507952115514 0:130 1:51 
0.01559145289670761 0:96 1:58 
0.05009825971345202 0:113 1:76 
0.006021871069378103 0:82 1:52 
23.2832539635979 0:21 1:60 
60.46344466167545 0:28 1:104 
70.48887074133585 0:24 1:53 
0.00191533908812744 0:85 1:70 
100 0:24 1:88 
0.009590988803074303 0:155 1:69 
0.03502687639250526 0:85 1:46 
0.006709952845375525 0:122 1:61 
0.002897268864052907 0:92 1:46 
0.0009496915824469204 0:107 1:59 
0.001018640140300008 0:110 1:58 
0.136991388132126 0:88 1:24 
0.004332166564345764 0:81 1:77 
100 0:22 1:113 
100 0:7 1:62 
100 0:19 1:106 
0.004711247440404814 0:145 1:70 
0.01353921236220805 0:104 1:45 
100 0:19 1:78 
19.24477175337673 0:40 1:110 
100 0:18 1:85 
22.01436613646381 0:3 1:13 
0.01068791693751725 0:107 1:72 
0.06657248036434788 0:143 1:36 
100 0:29 1:103 
0.01061258176723026 0:75 1:63 
100 0:10 1:133 
0.002276101801611326 0:95 1:83 
0.1504334875262687 0:180 1:55 
0.02629892336437532 0:147 1:75 
18.7042387017181 0:35 1:104 
22.24033618565523 0:24 1:99 
100 0:20 1:76 
100 0:23 1:88 
100 0:14 1:70 
42.72292917105532 0:59 1:112 
100 0:22 1:104 
73.05645175143013 0:25 1:70 
100 0:7 1:93 
0.006599593020621713 0:62 1:35 
0.01946847458341462 0:51 1:40 
100 0:23 1:102 
100 0:19 1:118 
0.02981984356216672 0:91 1:136 
0.01978974422872183 0:115 1:104 
0.005030594062674642 0:140 1:92 
19.29491425647201 0:16 1:51 
0.03788123473245039 0:127 1:58 
100 0:7 1:37 
100 0:13 1:87 
100 0:23 1:99 
0.01871611213764869 0:154 1:62 
0.1061823876040811 0:164 1:84 
0.02066654305505705 0:116 1:97 
0.1404968128689184 0:136 1:117 
0.1654765854889434 0:125 1:121 
2.377624985659562 0:62 1:117 
100 0:12 1:65 
0.02057525521418811 0:137 1:83 
0.003353522258981561 0:82 1:54 
0.2384467593099558 0:200 1:80 
0.00216663263376522 0:138 1:44 
0.00360404281676137 0:114 1:87 
28.89205715499667 0:26 1:49 
100 0:21 1:94 
100 0:13 1:109 
100 0:6 1:140 
100 0:17 1:108 
0.01197922485846074 0:131 1:86 
100 0:5 1:44 
100 0:5 1:56 
38.2425485657461 0:62 1:111 
0.01683858879890594 0:85 1:91 
0.006844319119807095 0:91 1:93 
100 0:14 1:49 
100 0:12 1:114 
100 0:8 1:94 
0.004798745127659876 0:150 1:38 
0.1238792939082407 0:78 1:21 
0.1612912654129789 0:102 1:23 
0.007472815942053371 0:72 1:56 
0.03714733074988667 0:128 1:40 
0.03265079920154567 0:167 1:63 
0.003395258974687572 0:132 1:68 
0.0104802537141652 0:51 1:43 
62.85046041208493 0:21 1:46 
68.33563545391681 0:19 1:42 
100 0:7 1:46 
100 0:10 1:64 
100 0:9 1:70 
100 0:15 1:70 
0.02234106580952175 0:58 1:26 
0.0278030723965676 0:90 1:64 
0.001432699044099735 0:82 1:59 
21.06649909610542 0:21 1:43 
0.001255853841898561 0:97 1:56 
8.940929105574561 0:30 1:62 
0.003366478788357338 0:119 1:63 
0.005011782653499082 0:134 1:62 
0.0007634177950414977 0:84 1:58 
0.0006866414494496875 0:109 1:58 
0.001305465893402516 0:140 1:56 
0.04435379888946059 0:101 1:107 
0.003573894354544624 0:57 1:26 
100 0:20 1:90 
4.917551630471102 0:23 1:50 
0.01339106966375472 0:155 1:56 
100 0:12 1:58 
0.008185297429093019 0:72 1:31 
100 0:9 1:58 
78.22198498429259 0:11 1:11 
0.2355249507818596 0:187 1:30 
0.02920431381570216 0:99 1:36 
0.0007055490855013558 0:134 1:66 
46.59663478496148 0:8 1:10 
0.02728148104956979 0:109 1:48 
0.1646154558832352 0:171 1:72 
100 0:20 1:62 
0.01607668772622824 0:110 1:47 
0.01102573001207943 0:53 1:47 
0.06065429042064439 0:48 1:26 
0.002855422252703466 0:137 1:41 
0.003756445794527552 0:50 1:36 
0.003068670120619556 0:83 1:58 
0.004610759629934349 0:134 1:58 
0.0006747208744329179 0:95 1:61 
84.67025165235663 0:7 1:17 
0.006062121797492309 0:83 1:80 
21.24996768555135 0:79 1:118 
19.53493196946895 0:36 1:100 
100 0:17 1:67 
0.004506451461553108 0:128 1:83 
0.001272823020673214 0:129 1:70 
0.006735281560922624 0:62 1:36 
58.62152680405019 0:49 1:65 
0.00683353854490424 0:84 1:90 
19.90265141410677 0:31 1:64 
100 0:20 1:104 
0.03735388353512284 0:55 1:50 
0.008708884055947719 0:79 1:36 
0.1704427980999214 0:53 1:12 
0.04119385845451901 0:44 1:14 
0.002804746621832909 0:102 1:38 
0.0007183047380734386 0:87 1:91 
0.07644381730552544 0:126 1:102 
0.02699809255969002 0:118 1:87 
100 0:27 1:101 
100 0:33 1:98 
54.82660446021463 0:26 1:83 
14.89889964402558 0:57 1:95 
0.01902437255037777 0:66 1:50 
70.18266871346927 0:37 1:68 
0.005793020315231471 0:46 1:24 
0.003439591174007693 0:47 1:27 
0.0005587564040143888 0:78 1:33 
0.001471448721497873 0:110 1:48 
0.001737977305034559 0:105 1:48 
20.40130009558932 0:29 1:63 
100 0:23 1:67 
100 0:36 1:100 
3.459340808809186 0:36 1:120 
17.60997784717032 0:42 1:116 
63.77494062558738 0:45 1:99 
100 0:30 1:113 
0.03699636070147713 0:101 1:103 
0.03846096763861658 0:132 1:92 
0.09161834153556457 0:72 1:72 
0.02317939102500409 0:60 1:27 
0.004040326970525088 0:105 1:72 
100 0:14 1:88 
100 0:19 1:62 
100 0:9 1:81 
100 0:57 1:96 
0.01829964318071157 0:145 1:68 
0.01793644606918633 0:101 1:73 
0.009263851616016509 0:74 1:56 
0.002741089969187534 0:79 1:49 
0.07693702212252236 0:82 1:80 
0.01520534875224492 0:55 1:49 
0.00107547233212738 0:73 1:45 
2.64074797580853 0:30 1:50 
0.008507045564996584 0:76 1:47 
0.1019190379041041 0:151 1:38 
0.01504681392634961 0:150 1:68 
100 0:5 1:60 
100 0:17 1:74 
100 0:4 1:55 
100 0:6 1:54 
100 0:14 1:49 
0.1508272813589953 0:188 1:65 
0.00483612023937673 0:139 1:57 
19.16297683473652 0:73 1:117 
0.0008500836872676353 0:57 1:98 
100 0:37 1:68 
100 0:15 1:63 
100 0:9 1:80 
0.01550004616686398 0:158 1:56 
0.00333984898638134 0:91 1:71 
0.0007047021805028364 0:97 1:71 
100 0:22 1:99 
0.1032984578711094 0:85 1:91 
0.002396939916289181 0:84 1:37 
0.006796831368136887 0:123 1:49 
13.78304270954654 0:12 1:14 
100 0:22 1:81 
100 0:22 1:83 
100 0:13 1:115 
0.002211583868234594 0:79 1:47 
19.64684187609511 0:39 1:69 
0.0008296830892121767 0:93 1:84 
0.004399598737443514 0:84 1:58 
0.05801549441184873 0:140 1:63 
100 0:23 1:118 
0.002678109955445465 0:144 1:51 
0.00255233790401672 0:103 1:44 
0.003278418005155733 0:104 1:88 
0.01291981565377916 0:149 1:108 
0.1092162478018628 0:147 1:115 
0.008627532571375881 0:69 1:52 
0.01286138756877205 0:73 1:58 
100 0:21 1:93 
18.08067966674431 0:53 1:97 
43.66103919094443 0:36 1:97 
0.0005674671675881537 0:87 1:71 
0.00105937544522199 0:88 1:44 
0.1916115131691924 0:158 1:118 
0.01700706433745601 0:63 1:40 
0.4995910392112477 0:32 1:35 
0.01769254705507868 0:98 1:86 
0.004656247342882775 0:82 1:56 
0.002155614191943233 0:88 1:45 
0.008437472400795253 0:122 1:52 
0.003692686494437381 0:124 1:44 
0.001464445084397248 0:147 1:64 
100 0:4 1:114 
100 0:14 1:98 
100 0:24 1:106 
0.08013636566856046 0:141 1:90 
0.002503179997843277 0:86 1:71 
76.76041994266127 0:34 1:118 
19.22902722342423 0:57 1:98 
100 0:16 1:84 
100 0:24 1:128 
100 0:21 1:94 
100 0:10 1:44 
0.05170061532234551 0:78 1:34 
0.005347565830699896 0:60 1:35 
0.02659833476967306 0:152 1:55 
0.0009443498000921241 0:137 1:59 
0.005317001585722304 0:95 1:85 
0.001587248665396069 0:141 1:81 
0.004782125023637993 0:83 1:81 
70.65623849908958 0:27 1:75 
0.001947429933931208 0:77 1:45 
0.0117798204466152 0:79 1:48 
100 0:19 1:109 
100 0:18 1:59 
27.75333853755273 0:23 1:57 
0.0006842636985366357 0:122 1:47 
0.001965095334307054 0:109 1:60 
0.01231920016228248 0:156 1:70 
0.05943907522575408 0:153 1:49 
0.01024600394619583 0:97 1:34 
0.04681829103279648 0:119 1:51 
0.006021895744401341 0:74 1:43 
0.004606410365386005 0:121 1:61 
0.004809589517938806 0:90 1:72 
0.004669145524733018 0:89 1:46 
0.006889257918876073 0:83 1:36 
0.001037970192104276 0:88 1:46 
0.01864592187425104 0:75 1:62 
0.06744504331140323 0:90 1:36 
0.05492156631108127 0:105 1:108 
0.07341342024935785 0:107 1:95 
100 0:28 1:117 
0.001745441807031364 0:63 1:41 
0.00718638888183623 0:50 1:34 
100 0:17 1:56 
98.01430306646796 0:30 1:62 
0.0100780158516835 0:40 1:16 
6.393825739114133 0:22 1:45 
0.03405736360554086 0:72 1:73 
0.01269817871123618 0:57 1:24 
0.05515520158244186 0:98 1:46 
100 0:20 1:78 
100 0:1 1:34 
100 1:34 
0.0233044273822228 0:134 1:57 
0.01057857118149035 0:113 1:49 
0.002583531468926993 0:112 1:48 
0.02465037283329149 0:48 1:27 
0.001956936337125809 0:107 1:61 
0.007125380558999048 0:112 1:51 
0.005962390053578777 0:98 1:36 
0.003710560591970412 0:138 1:73 
0.01749786217255839 0:92 1:68 
0.006129940707388793 0:110 1:49 
0.0008581300008779705 0:95 1:56 
0.2025280897749571 0:197 1:56 
0.002350966526445853 0:97 1:59 
0.002886769377722068 0:122 1:63 
0.0177729444768626 0:107 1:35 
0.162759877751904 0:160 1:103 
0.007239029278923429 0:95 1:44 
0.01910903612885734 0:62 1:38 
0.0009624597565672453 0:86 1:39 
0.01632254376130395 0:51 1:42 
20.09486869933719 0:36 1:116 
100 0:16 1:106 
4.125279112529655 0:32 1:105 
0.003468331477471652 0:134 1:59 
0.02077372049024175 0:71 1:31 
0.001862392107333839 0:95 1:54 
0.003050944903856821 0:95 1:57 
0.1757338888894779 0:104 1:127 
18.93029869363671 0:31 1:140 
0.004409208018380283 0:115 1:99 
0.01683554558496295 0:42 1:20 
0.000600188266174145 0:63 1:38 
100 0:31 1:125 
0.02176446587786167 0:99 1:87 
0.001264507259232681 0:98 1:71 
0.0009552709671117321 0:136 1:69 
0.001226540731512249 0:92 1:73 
0.0007481996835715155 0:93 1:43 
0.001960436652157895 0:122 1:43 
0.02246005840642941 0:116 1:37 
0.004782552598530115 0:51 1:39 
0.01939165392614463 0:141 1:45 
0.01863015030932906 0:121 1:72 
0.02463221157012048 0:120 1:103 
0.003243879663929583 0:81 1:50 
0.05830873104296996 0:100 1:66 
0.04329695622135773 0:118 1:41 
0.005843453940005318 0:91 1:46 
100 0:17 1:95 
100 0:5 1:100 
9.788995634056265 0:22 1:79 
0.001243397646687268 0:85 1:57 
0.004820445429574271 0:61 1:37 
0.01044857521685759 0:130 1:71 
10.91211212321635 0:62 1:93 
59.69743715741063 0:76 1:116 
100 0:16 1:74 
0.001132937129290585 0:98 1:72 
0.0155976149116331 0:123 1:46 
0.05223797989428378 0:143 1:80 
0.0206150311065133 0:136 1:70 
0.03126181117970651 0:54 1:47 
0.01357374683030943 0:108 1:62 
0.005843314955786826 0:82 1:57 
0.001034914234893453 0:121 1:45 
0.002547055681658799 0:96 1:52 
0.0029349540060564 0:120 1:76 
0.006667885764022918 0:75 1:44 
0.01721190363802616 0:97 1:35 
17.4518560248511 0:11 1:37 
67.49396726794133 0:12 1:46 
0.001186423778263289 0:50 1:39 
4.996102647847525 0:29 1:99 
0.03732630725573457 0:66 1:45 
0.05884315080114132 0:114 1:66 
0.001332829355662398 0:126 1:48 
0.004165851739373542 0:153 1:48 
0.1512592449719519 0:166 1:47 
0.02763127705252817 0:136 1:72 
0.007300903745818044 0:126 1:42 
0.002386700988581987 0:94 1:59 
0.1201990053745022 0:125 1:28 
0.02941353505075849 0:67 1:30 
0.007081120500507104 0:64 1:31 
0.1637729679487746 0:67 1:16 
0.08479362004070384 0:119 1:112 
0.02286861147001608 0:93 1:80 
0.004436425634524682 0:152 1:67 
0.009272281503901645 0:146 1:69 
0.001627600858142208 0:111 1:91 
0.007017071661738802 0:148 1:78 
0.010125412406489 0:128 1:91 
100 0:15 1:59 
14.49510726514749 0:43 1:98 
0.004717571514038644 0:102 1:72 
0.006265158488920725 0:49 1:30 
100 0:37 1:123 
0.007994626215489516 0:73 1:43 
0.06655457843177716 0:127 1:66 
100 0:21 1:138 
0.004888456098130291 0:49 1:33 
0.003615303027777512 0:75 1:45 
0.01874030851876875 0:70 1:53 
0.02568144145493264 0:158 1:71 
0.009245728393715919 0:156 1:81 
0.03702925554104529 0:151 1:79 
1.857689430827546 0:39 1:138 
5.426485880628213 0:76 1:124 
100 0:17 1:68 
40.54704493325819 0:23 1:59 
100 0:11 1:50 
0.009032259265496988 0:127 1:88 
0.005837058235005183 0:77 1:46 
50.37368420992763 0:39 1:94 
0.02540020104837013 0:55 1:50 
0.8128601321588009 0:60 1:117 
0.3229780543968072 0:49 1:159 
0.05967003835810929 0:160 1:38 
0.001510671701486702 0:86 1:70 
0.06219164023217483 0:109 1:112 
100 0:2 1:112 
69.10837137386027 0:5 1:30 
0.002935998267227084 0:99 1:73 
0.003698410950168335 0:88 1:71 
0.0008735119686781896 0:93 1:60 
0.01074229980817244 0:90 1:63 
0.007809597180879091 0:100 1:59 
20.82805489619626 0:40 1:127 
0.001681873431206664 0:114 1:83 
0.007324977593175218 0:123 1:71 
0.001253613370399608 0:143 1:69 
0.1265490650101326 0:36 1:8 
0.05404577814228011 0:133 1:78 
0.07267037015510451 0:124 1:79 
0.0009078378400973062 0:134 1:67 
0.007078483169664154 0:144 1:79 
0.002613597010199514 0:115 1:79 
0.006107493083948206 0:61 1:36 
0.1213560190158449 0:79 1:144 
0.1033965177411101 0:95 1:97 
23.13523853775897 0:32 1:105 
0.0009085277947821478 0:150 1:65 
0.02472261531288646 0:113 1:86 
0.08519222328685697 0:144 1:103 
0.03328364940774826 0:130 1:90 
0.001791664046938239 0:86 1:38 
18.10015575981192 0:63 1:113 
0.5732528543478106 0:50 1:64 
0.00596301242662494 0:83 1:37 
0.008545990315368065 0:71 1:54 
0.000796356057809644 0:94 1:82 
0.06624683886208291 0:161 1:62 
0.009108329411348263 0:151 1:48 
0.00192362840980298 0:106 1:44 
0.02328819313014938 0:80 1:43 
0.01495687536995756 0:97 1:57 
0.1979354313533821 0:172 1:93 
0.05453117911287263 0:121 1:91 
0.004407934190488451 0:83 1:56 
0.001508938625205211 0:107 1:65 
0.001407113104374558 0:104 1:45 
0.005122119073692866 0:108 1:61 
0.004292400228201567 0:64 1:40 
0.004046623809500938 0:104 1:73 
100 0:16 1:71 
0.001523828373096111 0:94 1:58 
0.004910509823251594 0:96 1:59 
0.001942517768964979 0:85 1:38 
0.001093157193940886 0:87 1:38 
0.004117374244739788 0:99 1:74 
100 0:26 1:110 
100 0:21 1:128 
100 0:20 1:134 
1.272170646385778 0:45 1:138 
76.5017546614539 0:36 1:111 
0.02466066513888348 0:178 1:63 
0.01260552188312949 0:69 1:29 
0.004095558862490634 0:93 1:46 
0.01591676508429491 0:136 1:42 
0.05196985570699065 0:132 1:39 
0.1688472382873179 0:168 1:27 
100 0:12 1:54 
100 0:12 1:57 
100 0:16 1:61 
2.830338287212638 0:24 1:65 
100 0:13 1:54 
0.01970428894906079 0:97 1:85 
0.005578438678729814 0:101 1:51 
0.04314222781909027 0:158 1:77 
0.01569181363861682 0:153 1:100 
0.001703041938368017 0:134 1:72 
100 0:14 1:107 
2.242097844982053 0:24 1:71 
100 0:10 1:105 
100 0:20 1:77 
100 0:18 1:106 
100 0:18 1:60 
100 0:17 1:96 
100 0:5 1:84 
0.01761417221534033 0:80 1:77 
100 0:35 1:135 
0.007406878290728392 0:140 1:71 
0.006603697412459465 0:97 1:56 
0.01381738809878885 0:113 1:99 
52.30877515929141 0:39 1:122 
0.004545540979358966 0:80 1:78 
0.01866743686683307 0:107 1:62 
0.012010986348506 0:120 1:62 
0.007530823340936237 0:114 1:88 
0.007110691325712095 0:102 1:89 
100 0:15 1:66 
100 1:38 
13.85954819745775 0:37 1:67 
0.006025303559898566 0:91 1:45 
0.05705966990651167 0:112 1:36 
100 0:16 1:70 
0.002917085793522819 0:84 1:55 
0.01481957701590969 0:117 1:82 
0.04872671333259145 0:115 1:57 
0.009523159635781936 0:136 1:43 
0.009576207003562074 0:98 1:35 
0.03136500771183003 0:67 1:50 
100 0:21 1:93 
100 0:13 1:55 
100 0:16 1:85 
0.007256339108416943 0:114 1:102 
0.07686819547093378 0:109 1:121 
0.006226128335828566 0:121 1:70 
0.04989005580871003 0:74 1:60 
0.001028635907711452 0:109 1:60 
0.001010447716269274 0:69 1:52 
0.003829438124067121 0:80 1:49 
0.00214668118425017 0:99 1:89 
0.001768768014793533 0:121 1:59 
0.0006258697920489276 0:133 1:66 
0.02973547140349597 0:173 1:59 
0.03679625499266935 0:146 1:98 
0.1836286834471995 0:138 1:26 
0.1643867027466058 0:115 1:22 
0.2387377864734989 0:207 1:36 
0.08533376609184817 0:37 1:20 
30.99283894098808 0:59 1:95 
0.00529812196829753 0:70 1:31 
0.001464876789622356 0:85 1:37 
0.004944533035728324 0:156 1:68 
0.004425501149853137 0:155 1:74 
0.092399214801343 0:161 1:29 
0.001366427816447328 0:89 1:44 
0.005353510992452459 0:92 1:71 
0.009624576882688665 0:105 1:36 
0.06070035745089149 0:50 1:37 
0.02138413213767969 0:107 1:35 
0.05570161791709751 0:106 1:83 
-0.1553310602870646 1:166 
-1.959573772562565 1:96 
-79.06620812065641 0:33 1:126 
-0.09433033288325718 1:113 
-2.436572093136192 1:95 
-1.584614098838948 1:96 
-24.34291829437636 0:2 1:88 
-7.136663146036553 0:4 1:94 
-0.1979927338905044 1:154 
-2.219294045006796 0:8 1:79 
-0.2043026719784401 1:155 
-0.0555611387911803 1:122 
-42.1104748605043 0:13 1:105 
-100 0:14 1:74 
-100 0:20 1:90 
-1.106559662280281 1:96 
-5.074257006655615 0:17 1:99 
-100 0:20 1:100 
-100 0:25 1:125 
-61.82845518594097 0:13 1:88 
-100 0:15 1:48 
-99.88591557864649 0:13 1:69 
-99.37006337567435 0:3 1:113 
-100 0:11 1:55 
-0.1084240782255635 1:113 
-43.05106801425052 0:5 1:140 
-0.4277192248622633 1:96 
-0.2084943512725549 0:5 1:202 
-0.1618938170116144 0:6 1:180 
-0.2350062544185457 0:16 1:167 
-0.0487953824908062 1:180 
-0.1138404952592274 1:164 
-0.1171430908758709 1:179 
-58.15577972555834 1:35 
-5.432410051378814 1:113 
-0.01640377761840971 1:155 
-0.009928625724782703 1:166 
-25.08294094949039 0:8 1:79 
-54.24508426418485 0:12 1:114 
-24.1171985594842 0:4 1:103 
-0.00422589527933111 1:122 
-34.19633557517052 0:11 1:134 
-7.953605218460195 0:3 1:88 
-2.525127406738903 1:96 
-1.419617615302842 0:26 1:169 
-0.077465878981026 0:10 1:159 
-0.004154121621199864 1:122 
-0.08081478753972501 1:169 
-2.213387407064735 0:5 1:94 
-100 0:20 1:77 
-100 0:12 1:56 
-100 0:16 1:71 
-100 0:27 1:98 
-100 0:5 1:56 
-41.0605369039518 0:3 1:55 
-100 0:8 1:81 
-6.428441288424589 1:95 
-100 0:20 1:62 
-5.372979821711422 1:95 
-0.04521060584809575 1:157 
-100 0:22 1:90 
-100 0:35 1:136 
-10.53153663197888 0:37 1:129 
-0.02182027681461619 1:168 
-3.606618170453449 0:2 1:88 
-9.253852343467846 0:7 1:82 
-100 0:10 1:46 
-0.1831939778281471 1:170 
-100 0:36 1:124 
-0.001546098866308484 1:122 
-100 0:16 1:94 
-100 0:19 1:59 
-62.12607109283162 0:5 1:59 
-16.69620296235016 0:6 1:138 
-1.674364128909864 0:14 1:105 
-0.2082846773902595 1:178 
-100 0:18 1:72 
-100 0:11 1:56 
-100 0:18 1:64 
-4.309979514161916 0:2 1:88 
-18.11532025507403 0:7 1:95 
-1.536088862952528 1:213 
-100 0:18 1:79 
-100 0:23 1:79 
-0.3103523690710902 0:3 1:88 
-9.726059213045787 0:6 1:48 
-0.03195414257603913 1:178 
-0.769767544486718 0:8 1:174 
-0.1423337195409342 1:188 
-0.2238915917151213 1:189 
-0.02392811997669722 1:178 
-3.69474191588034 1:95 
-100 0:32 1:116 
-60.13646416410074 0:23 1:139 
-100 0:22 1:106 
-100 0:18 1:83 
-100 0:13 1:51 
-71.72505729179686 0:21 1:132 
-100 0:13 1:61 
-10.74509936165526 0:9 1:96 
-100 0:27 1:100 
-0.084425902476568 0:2 1:88 
-37.65315521282042 0:13 1:68 
-100 0:31 1:64 
-100 0:23 1:86 
-100 0:14 1:64 
-100 0:28 1:79 
-49.21390390551059 0:3 1:113 
-93.76449943150512 0:18 1:90 
-100 0:27 1:115 
-100 0:15 1:45 
-100 0:14 1:58 
-6.833450137232728 0:2 1:88 
-43.97947402844108 0:9 1:133 
-49.54239435999877 0:19 1:86 
-100 0:14 1:108 
-100 0:21 1:101 
-31.05158575587971 0:19 1:136 
-100 0:38 1:67 
-15.34852825349412 0:3 1:112 
-100 0:19 1:96 
-100 0:21 1:65 
-0.02150090315275218 1:180 
-0.2370882257422067 0:12 1:161 
-100 0:19 1:90 
-0.001557979987598133 1:156 
-100 0:18 1:65 
-100 0:13 1:106 
-0.466937149313071 0:3 1:88 
-5.428627834534805 1:96 
-5.284510186961417 1:95 
-17.92457556229925 0:5 1:94 
-0.1359260603295535 1:95 
-100 0:24 1:75 
-100 0:19 1:108 
-100 0:16 1:96 
-8.364601536579633 0:4 1:103 
-100 0:22 1:94 
-0.362869503533621 1:113 
-7.093808549194762 1:113 
-0.8790581036567076 1:200 
-100 0:17 1:56 
-100 0:32 1:113 
-0.2428835089760165 0:8 1:79 
-100 0:33 1:102 
-88.35551685817985 0:17 1:81 
-100 0:27 1:116 
-0.08672171818037258 1:181 
-22.46227243476081 0:4 1:93 
-74.81596558931753 0:8 1:79 
-27.76555147108977 0:14 1:105 
-96.7265480240508 0:14 1:109 
-100 0:14 1:107 
-100 0:11 1:87 
-31.14885996372228 0:5 1:68 
-100 0:23 1:71 
-19.79185892595271 0:5 1:101 
-100 0:21 1:102 
-100 0:25 1:82 
-0.02050773381913248 1:165 
-100 0:5 1:57 
-100 0:17 1:51 
-100 0:13 1:47 
-100 0:12 1:56 
-100 0:20 1:58 
-100 0:15 1:55 
-87.81271158806148 0:21 1:118 
-100 0:35 1:99 
-1.13860703413975 1:95 
-6.454794657350879 1:42 
-100 0:17 1:116 
-100 0:6 1:60 
-70.49603266861615 0:21 1:132 
-0.7456456025214758 0:19 1:160 
-7.936215195383362 0:15 1:137 
-0.03269425002381248 1:180 
-29.73190282066304 0:21 1:137 
-100 0:9 1:97 
-0.06539538394662413 1:155 
-0.007961175796126603 1:170 
-0.06531614791196878 1:172 
-0.006471089262225617 1:191 
-62.87475604493002 0:2 1:32 
-0.0998991214942359 1:122 
-78.05488163267006 0:22 1:127 
-100 0:23 1:87 
-88.62661746665378 0:10 1:115 
-36.25770864031896 0:17 1:116 
-0.3598441715697187 1:186 
-0.002834495925529949 1:156 
-0.04408343975855957 1:165 
-0.1026472285994186 1:189 
-4.265805034655091 1:95 
-100 0:21 1:103 
-100 0:50 1:65 
-100 0:22 1:109 
-100 0:13 1:73 
-17.90020257457709 0:19 1:110 
-100 0:17 1:68 
-100 0:76 1:117 
-100 0:43 1:99 
-100 0:37 1:95 
-50.18322551467806 0:11 1:86 
-100 0:59 1:95 
-100 0:55 1:97 
-92.22465779012342 0:4 1:36 
-0.00761644297287589 1:157 
-3.092379331602727 0:2 1:112 
-0.5393664608129339 1:42 
-8.753160772398356 1:36 
-94.23654047650277 1:35 
-0.06120128718328773 1:167 
-0.02373834240729584 1:156 
-0.02793508324721997 1:166 
-4.065530625921691 1:95 
-82.36400034360462 0:15 1:77 
-100 0:17 1:62 
-0.003188125367872575 1:177 
-0.2119800783169976 1:164 
-100 0:20 1:72 
-100 0:29 1:103 
-100 0:22 1:99 
-61.13159381807292 0:16 1:92 
-0.003474465821498539 0:10 1:190 
-26.890538503511 0:9 1:51 
-100 0:14 1:53 
-100 0:18 1:67 
-10.36744094623191 1:36 
-48.82145927845404 0:18 1:108 
-1.901419346563256 0:3 1:112 
-14.72002903424562 1:42 
-15.85363360601389 1:16 
-100 0:13 1:66 
-0.4391927337739945 1:113 
-0.007597947817072514 1:157 
-1.343050645200921 0:12 1:194 
-100 0:10 1:12 
-100 0:8 1:13 
-100 0:12 1:63 
-100 0:13 1:69 
-0.1992046576616912 1:113 
-100 0:38 1:112 
-100 0:17 1:79 
-29.53341921135936 0:7 1:140 
-100 0:28 1:74 
-1.152105644693213 1:95 
-0.9239022438245268 0:5 1:94 
-18.90956810248999 0:6 1:64 
-55.18407308786949 0:5 1:55 
-100 0:18 1:59 
-100 0:16 1:70 
-16.94401694380114 0:9 1:51 
-100 0:11 1:51 
-58.07800353978613 0:5 1:25 
-100 0:8 1:41 
-30.42354930743725 1:36 
-3.960258838545926 0:52 1:140 
-12.06565586659201 0:18 1:119 
-0.01093553992157409 1:158 
-86.33595382397775 0:11 1:86 
-1.87553857841378 1:96 
-0.1040994133575895 1:113 
-0.966847576888353 1:95 
-0.7084737305315338 0:3 1:112 
-7.458017357341921 0:16 1:140 
-23.01240396903647 0:11 1:131 
-100 0:24 1:107 
-100 0:10 1:61 
-89.07485723809486 0:13 1:68 
-100 0:10 1:39 
-0.1746542296737604 1:154 
-74.71365533422093 0:5 1:94 
-100 0:22 1:89 
-100 0:11 1:89 
-100 0:17 1:62 
-0.1385162730539179 1:95 
-5.02182900569303 1:43 
-100 0:5 1:45 
-0.007909717224202195 1:167 
-100 0:16 1:67 
-100 0:61 1:112 
-100 0:21 1:83 
-17.48894103288167 0:5 1:103 
-100 0:17 1:81 
-100 0:37 1:69 
-100 0:29 1:61 
-34.67291138302451 0:8 1:61 
-0.0012862873016804 1:122 
-100 0:39 1:121 
-100 0:31 1:106 
-100 0:31 1:65 
-100 0:19 1:95 
-12.35870023291859 0:6 1:142 
-100 0:25 1:51 
-0.08861928505877759 1:188 
-0.20482457933178 0:11 1:157 
-100 0:8 1:81 
-19.11867584687381 0:4 1:94 
-100 0:21 1:108 
-20.76208504186737 0:9 1:99 
-100 0:8 1:49 
-100 0:21 1:69 
-100 0:21 1:43 
-0.3239880658972064 1:122 
-0.1895735485385628 1:159 
